digraph Tree {
node [shape=box, style="filled, rounded", color="black", fontname="helvetica"] ;
edge [fontname="helvetica"] ;
0 [label=<Sex &le; 0.5<br/>gini = 0.473<br/>samples = 891<br/>value = [549, 342]<br/>class = Died>, fillcolor="#f5cfb4"] ;
1 [label=<Pclass &le; 2.5<br/>gini = 0.383<br/>samples = 314<br/>value = [81, 233]<br/>class = Survived>, fillcolor="#7ebfee"] ;
0 -> 1 [labeldistance=2.5, labelangle=45, headlabel="True"] ;
2 [label=<Age &le; 2.5<br/>gini = 0.1<br/>samples = 170<br/>value = [9, 161]<br/>class = Survived>, fillcolor="#44a2e6"] ;
1 -> 2 ;
3 [label=<gini = 0.5<br/>samples = 2<br/>value = [1, 1]<br/>class = Died>, fillcolor="#ffffff"] ;
2 -> 3 ;
4 [label=<gini = 0.091<br/>samples = 168<br/>value = [8, 160]<br/>class = Survived>, fillcolor="#43a2e6"] ;
2 -> 4 ;
5 [label=<Embarked_S &le; 0.5<br/>gini = 0.5<br/>samples = 144<br/>value = [72, 72]<br/>class = Died>, fillcolor="#ffffff"] ;
1 -> 5 ;
6 [label=<gini = 0.423<br/>samples = 56<br/>value = [17, 39]<br/>class = Survived>, fillcolor="#8fc8f0"] ;
5 -> 6 ;
7 [label=<gini = 0.469<br/>samples = 88<br/>value = [55, 33]<br/>class = Died>, fillcolor="#f5cdb0"] ;
5 -> 7 ;
8 [label=<Age &le; 6.5<br/>gini = 0.306<br/>samples = 577<br/>value = [468, 109]<br/>class = Died>, fillcolor="#eb9e67"] ;
0 -> 8 [labeldistance=2.5, labelangle=-45, headlabel="False"] ;
9 [label=<Pclass &le; 2.5<br/>gini = 0.444<br/>samples = 24<br/>value = [8, 16]<br/>class = Survived>, fillcolor="#9ccef2"] ;
8 -> 9 ;
10 [label=<gini = 0.0<br/>samples = 10<br/>value = [0, 10]<br/>class = Survived>, fillcolor="#399de5"] ;
9 -> 10 ;
11 [label=<gini = 0.49<br/>samples = 14<br/>value = [8, 6]<br/>class = Died>, fillcolor="#f8e0ce"] ;
9 -> 11 ;
12 [label=<Pclass &le; 1.5<br/>gini = 0.28<br/>samples = 553<br/>value = [460, 93]<br/>class = Died>, fillcolor="#ea9a61"] ;
8 -> 12 ;
13 [label=<gini = 0.46<br/>samples = 120<br/>value = [77, 43]<br/>class = Died>, fillcolor="#f4c7a8"] ;
12 -> 13 ;
14 [label=<gini = 0.204<br/>samples = 433<br/>value = [383, 50]<br/>class = Died>, fillcolor="#e89153"] ;
12 -> 14 ;
}