digraph Tree {
node [shape=box, fontname="helvetica"] ;
edge [fontname="helvetica"] ;
0 [label="year <= 2006.5\nsquared_error = 35247755.102\nsamples = 14\nvalue = 6571.429"] ;
1 [label="miles <= 131000.0\nsquared_error = 1232839.506\nsamples = 9\nvalue = 2722.222"] ;
0 -> 1 [labeldistance=2.5, labelangle=45, headlabel="True"] ;
2 [label="year <= 2003.5\nsquared_error = 250000.0\nsamples = 2\nvalue = 4500.0"] ;
1 -> 2 ;
3 [label="squared_error = 0.0\nsamples = 1\nvalue = 5000.0"] ;
2 -> 3 ;
4 [label="squared_error = 0.0\nsamples = 1\nvalue = 4000.0"] ;
2 -> 4 ;
5 [label="year <= 2001.0\nsquared_error = 352653.061\nsamples = 7\nvalue = 2214.286"] ;
1 -> 5 ;
6 [label="doors <= 3.0\nsquared_error = 62500.0\nsamples = 2\nvalue = 1550.0"] ;
5 -> 6 ;
7 [label="squared_error = 0.0\nsamples = 1\nvalue = 1800.0"] ;
6 -> 7 ;
8 [label="squared_error = 0.0\nsamples = 1\nvalue = 1300.0"] ;
6 -> 8 ;
9 [label="miles <= 149000.0\nsquared_error = 221600.0\nsamples = 5\nvalue = 2480.0"] ;
5 -> 9 ;
10 [label="squared_error = 0.0\nsamples = 1\nvalue = 3000.0"] ;
9 -> 10 ;
11 [label="squared_error = 192500.0\nsamples = 4\nvalue = 2350.0"] ;
9 -> 11 ;
12 [label="year <= 2011.0\nsquared_error = 21800000.0\nsamples = 5\nvalue = 13500.0"] ;
0 -> 12 [labeldistance=2.5, labelangle=-45, headlabel="False"] ;
13 [label="year <= 2009.5\nsquared_error = 4671875.0\nsamples = 4\nvalue = 11375.0"] ;
12 -> 13 ;
14 [label="miles <= 62500.0\nsquared_error = 62500.0\nsamples = 2\nvalue = 9250.0"] ;
13 -> 14 ;
15 [label="squared_error = 0.0\nsamples = 1\nvalue = 9000.0"] ;
14 -> 15 ;
16 [label="squared_error = 0.0\nsamples = 1\nvalue = 9500.0"] ;
14 -> 16 ;
17 [label="doors <= 3.0\nsquared_error = 250000.0\nsamples = 2\nvalue = 13500.0"] ;
13 -> 17 ;
18 [label="squared_error = 0.0\nsamples = 1\nvalue = 14000.0"] ;
17 -> 18 ;
19 [label="squared_error = 0.0\nsamples = 1\nvalue = 13000.0"] ;
17 -> 19 ;
20 [label="squared_error = 0.0\nsamples = 1\nvalue = 22000.0"] ;
12 -> 20 ;
}